{"NN_Shape": [5, 4, 3], "Gene_List": ["204439_at", "203153_at", "213797_at", "219519_s_at", "207329_at"], "Weights": [[[0.22643890976905823, -0.19486604630947113, -0.08648092299699783, 0.20687860250473022, -0.3977922201156616], [0.17463040351867676, -0.1812043935060501, 0.13615170121192932, -0.019352642819285393, -0.09363971650600433], [0.08914173394441605, -0.011334765702486038, 0.12908115983009338, -0.2015637904405594, -0.05698797106742859], [-0.054598793387413025, -0.5057169795036316, -0.3971196115016937, -0.3506578803062439, 0.9335139393806458]], [[-0.15886710584163666, -0.004138135816901922, 0.28826647996902466, 0.5080267190933228], [-0.4532439708709717, 0.2932162284851074, 0.13750818371772766, 0.8695522546768188], [0.31854763627052307, -0.39660269021987915, -0.4403926134109497, -0.8823831081390381]]], "One-Hot_Encoded_Output": {"non-infectious illness": [1, 0, 0], "bacterial": [0, 1, 0], "viral": [0, 0, 1]}, "Biases": [[-0.16502219438552856, -0.28426679968833923, -0.08472943305969238, 0.6075194478034973], [-0.05101150646805763, -0.6983866095542908, 0.9023913741111755]]}