{"NN_Shape": [12, 24, 12, 3], "Gene_List": ["204439_at", "213797_at", "219519_s_at", "207329_at", "212768_s_at", "205569_at", "214059_at", "205844_at", "206177_s_at", "216191_s_at", "219669_at", "216834_at"], "Weights": [[[0.2482845038175583, -0.14503884315490723, -0.17602388560771942, 0.028016846626996994, -0.1900627464056015, 0.12251119315624237, -0.2449975609779358, -0.022245265543460846, 0.021598204970359802, 0.017429785802960396, 0.07801937311887741, -0.00793179590255022], [0.059557292610406876, -0.3416711091995239, -0.05652697756886482, 0.08517932891845703, -0.05567309632897377, 0.018808532506227493, 0.3836369216442108, 0.036367252469062805, -0.15447531640529633, -0.025761742144823074, 0.07062412798404694, -0.009285664185881615], [-0.06434505432844162, -0.032330598682165146, 0.22149716317653656, 0.14069464802742004, -0.27435365319252014, 0.0934266746044159, 0.11964011937379837, 0.3126056492328644, 0.21729114651679993, -0.21280016005039215, -0.20386461913585663, -0.2332390546798706], [0.2319961041212082, -0.04954204335808754, 0.07106783241033554, -0.1746676117181778, 0.2045869529247284, -0.21595972776412964, 0.19572286307811737, -0.06938043236732483, -0.1816481351852417, 0.15264387428760529, -0.1758643537759781, -0.09328281879425049], [-0.06861302256584167, -0.03305751830339432, -0.2876269817352295, -0.16076070070266724, 0.1620345115661621, -0.12946286797523499, 0.2128944844007492, 0.228975310921669, 0.0013443247880786657, -0.28195980191230774, 0.09633185714483261, 0.05130718648433685], [-0.28820696473121643, 0.16612596809864044, 0.03586344048380852, 0.2665402293205261, -0.06939037144184113, 0.09569606184959412, 0.03204512968659401, -0.022077754139900208, -0.19223037362098694, -0.24977754056453705, 0.12535692751407623, -0.10784131288528442], [0.21314281225204468, -0.0037468194495886564, 0.02777797169983387, 0.023058421909809113, 0.05160127952694893, 0.04665987566113472, -0.2726041078567505, 0.3338650166988373, -0.19635123014450073, -0.07357669621706009, 0.01196377258747816, 0.08912190049886703], [0.14514809846878052, -0.17668946087360382, -0.2064691185951233, 0.08645231276750565, 0.17390121519565582, 0.2603708505630493, -0.046439774334430695, -0.27374258637428284, -0.016272209584712982, 0.1322517842054367, -0.16229848563671112, -0.12031447142362595], [0.11521880328655243, 0.019298046827316284, -0.14054188132286072, -0.11179500818252563, 0.2580546438694, -0.08600441366434097, 0.1486024409532547, 0.1177857369184494, -0.18788863718509674, -0.24100361764431, 0.2767127752304077, -0.003643961623311043], [0.25877100229263306, 0.1020534560084343, 0.11888802796602249, 0.19665658473968506, 0.2042524665594101, -0.16480296850204468, 0.06312352418899536, 0.24406331777572632, 0.19599677622318268, 0.1848709136247635, -0.18680259585380554, -0.2254379689693451], [-0.2573859691619873, 0.01756829395890236, 0.30715063214302063, -0.19238696992397308, 0.20439273118972778, -0.09295036643743515, -0.24994875490665436, -0.13487142324447632, 0.09083545953035355, 0.19559451937675476, -0.18808913230895996, 0.05854063108563423], [0.2363436222076416, 0.07092351466417313, 0.20972858369350433, 0.2453034669160843, 0.07970714569091797, -0.05862252041697502, -0.2984049320220947, -0.23734882473945618, -0.07332328706979752, -0.0036922763101756573, -0.09629887342453003, 0.19773775339126587], [-0.09523887187242508, -0.0941384956240654, 0.05190037190914154, 0.055512990802526474, 0.04533341899514198, 0.25123417377471924, -0.040934622287750244, 0.19957076013088226, -0.011098742485046387, -0.054282501339912415, -0.4097076952457428, -0.154532328248024], [-0.052166059613227844, -0.06528171896934509, 0.22420722246170044, -0.1440381109714508, -0.26574209332466125, 0.0423862487077713, 0.12493185698986053, 0.07944657653570175, -0.19455698132514954, 0.0988658219575882, -0.13748836517333984, -0.02582434006035328], [-0.21721868216991425, -0.1498221457004547, -0.12579387426376343, -0.09281982481479645, 0.01203993335366249, 0.06116360425949097, 0.3653656840324402, 0.2222651094198227, 0.2298979014158249, 0.05505499616265297, 0.02625505067408085, 0.2605058550834656], [-0.07606152445077896, 0.008205313235521317, -0.31128233671188354, -0.033196233212947845, -0.18553651869297028, 0.17442433536052704, -0.221377432346344, -0.28415635228157043, -0.01240481436252594, -0.13680855929851532, 0.11064092814922333, -0.09724505245685577], [-0.15050967037677765, 0.08475986868143082, 0.26898059248924255, -0.09446043521165848, 0.13992539048194885, 0.18404515087604523, 0.27369576692581177, -0.21594493091106415, 0.13161462545394897, -0.1989162713289261, 0.2315625697374344, -0.07704528421163559], [0.14932340383529663, 0.0009098524460569024, -0.1266348958015442, 0.054967500269412994, -0.10965470969676971, 0.07180887460708618, 0.03751782700419426, 0.02592005766928196, -0.23543229699134827, 0.29194748401641846, 0.25654399394989014, 0.1711706519126892], [0.16193346679210663, -0.2987251579761505, -0.1257166713476181, 0.19488251209259033, -0.06723356246948242, 0.3640368580818176, -0.3272596299648285, -0.21910874545574188, 0.05091271176934242, -0.15510109066963196, -0.052172549068927765, -0.02790653333067894], [0.18327488005161285, 0.1614629179239273, -0.08473033457994461, -0.17903344333171844, 0.2666010558605194, 0.05588817223906517, -0.010173235088586807, 0.05548696592450142, -0.1942666471004486, 0.4057426452636719, 0.007349417544901371, -0.272293359041214], [-0.24203823506832123, -0.04403448477387428, 0.10704144090414047, 0.009650396183133125, -0.11592687666416168, 0.016750862821936607, -0.2552804946899414, -0.20766030251979828, -0.13659994304180145, 0.26598235964775085, 0.31890857219696045, 0.013841954991221428], [-0.04714762046933174, -0.008861333131790161, 0.11222601681947708, -0.12190579622983932, 0.11146117001771927, 0.06166066229343414, 0.023193931207060814, 0.00398394837975502, 0.18591102957725525, 0.45569097995758057, -0.13501743972301483, 0.19348333775997162], [-0.06884629279375076, -0.15912647545337677, 0.10721515864133835, -0.2553597092628479, 0.2224341779947281, -0.1736239790916443, 0.19308368861675262, 0.046208638697862625, 0.24161744117736816, 0.19736872613430023, -0.05598067119717598, -0.10287869721651077], [-0.22694751620292664, -0.04166831448674202, -0.0440649650990963, -0.14179523289203644, -0.07815579324960709, 0.10053090751171112, 0.26341643929481506, 0.11553007364273071, -0.13267302513122559, -0.03380170091986656, -0.23576530814170837, 0.26366716623306274]], [[-0.1511368602514267, 0.01258715521544218, 0.11337554454803467, -0.1241951659321785, -0.03920749947428703, 0.0629541203379631, 0.21405728161334991, 0.108699269592762, -0.06707944720983505, 0.07138916105031967, -0.020032694563269615, -0.009570802561938763, -0.005695780273526907, -0.01862495206296444, -0.12674498558044434, -0.061732448637485504, -0.18010787665843964, -0.005734872072935104, 0.15780264139175415, 0.07165369391441345, 0.2185346484184265, -0.008706602267920971, 0.000680424040183425, 0.14174248278141022], [-0.12574909627437592, 0.04059027135372162, 0.15673649311065674, 0.007523584179580212, -0.02434852533042431, 0.06186123564839363, -0.20797094702720642, 0.1454222947359085, 0.03435111045837402, -0.04418197646737099, -0.12395761162042618, -0.049531903117895126, -0.23325896263122559, -0.17549771070480347, 0.18226434290409088, 0.022491784766316414, -0.0023864060640335083, -0.016565587371587753, 0.02984520047903061, 0.046625588089227676, 0.07806862145662308, 0.21336980164051056, 0.12652790546417236, 0.10418830811977386], [-0.05615539476275444, -0.2922174334526062, 0.09442147612571716, -0.1297377496957779, 0.06314382702112198, -0.02645876444876194, -0.19162815809249878, -0.045803386718034744, 0.07957179099321365, -0.0014399477513507009, -0.18491247296333313, 0.04807848110795021, 0.02940910868346691, -0.07330579310655594, -0.0010020961053669453, 0.04317634180188179, -0.10928355902433395, 0.10622872412204742, 0.08258987963199615, -0.06352511048316956, 0.11146291345357895, -0.13368801772594452, 0.15817642211914062, -0.02104279212653637], [-0.2554877698421478, 0.023795301094651222, 0.08126530796289444, 0.16825589537620544, -0.007794818375259638, -0.1359526365995407, 0.05542664974927902, 0.24409182369709015, 0.19203509390354156, -0.09002763777971268, 0.1446601152420044, -0.018896112218499184, -0.04077128320932388, -0.0309707373380661, -0.03774679824709892, 0.089637391269207, -0.028384177014231682, 0.0138734495267272, 0.07653326541185379, -0.032611552625894547, 0.011160451918840408, -0.2066456824541092, -0.16810555756092072, -0.0006593595026060939], [0.08087454736232758, -0.08841460198163986, -0.02578221634030342, 0.10398556292057037, 0.05009220540523529, -0.2327803075313568, 0.061411693692207336, 0.08866947144269943, -0.1252506971359253, 0.14197109639644623, -0.12801548838615417, -0.08271816372871399, -0.20421531796455383, 0.10197528451681137, -0.028666267171502113, 0.09417754411697388, -0.009659060277044773, 0.07987862080335617, -0.15547657012939453, -0.13855956494808197, -0.019077282398939133, -0.06157446280121803, -0.034192148596048355, -0.17602519690990448], [-0.09299114346504211, 0.07905515283346176, 0.07213115692138672, -0.1988483965396881, 0.15612448751926422, 0.019444867968559265, 0.1329682171344757, 0.05524355545639992, -0.157561257481575, 0.2105008065700531, -0.178375706076622, 0.007204342167824507, -0.06488286703824997, 0.09285281598567963, -0.07680964469909668, 0.025578400120139122, -0.10237656533718109, -0.18421398103237152, 0.023881588131189346, 0.11917854100465775, 0.2116454839706421, 0.050608932971954346, 0.11631851643323898, 0.25981631875038147], [-0.06143338605761528, -0.11791618168354034, 0.12496079504489899, -0.11064308881759644, 0.05386309698224068, -0.16507656872272491, 0.1629398614168167, 0.03719845041632652, -0.05662766471505165, 0.09717343747615814, -0.1354534924030304, -0.047627560794353485, -0.002561436267569661, -0.0846438854932785, -0.02430139109492302, -0.07800193130970001, 0.19920513033866882, 0.2167464792728424, 0.1746935397386551, 0.2132658064365387, -0.17760032415390015, 0.08742809295654297, 0.06321338564157486, -0.15532086789608002], [0.1280798465013504, -0.19174210727214813, 0.07636876404285431, 0.10215112566947937, 0.05738602951169014, -0.06276790797710419, -0.23198923468589783, 0.08470862358808517, -0.03615639731287956, 0.028635866940021515, 0.14195333421230316, -0.09528990834951401, 0.10884398221969604, -0.10064177960157394, -0.05975094437599182, 0.07066819816827774, 0.07581759244203568, -0.06770329922437668, -0.16930577158927917, 0.1309034675359726, -0.17494866251945496, -0.1583184152841568, -0.23610401153564453, -0.040343958884477615], [-0.02352922037243843, -0.12449610233306885, -0.08193723112344742, -0.16993795335292816, 0.1040617823600769, -0.06117740646004677, -0.1441161334514618, 0.05936300754547119, -0.15605798363685608, 0.13082648813724518, 0.11399278789758682, -0.21002118289470673, -0.14259645342826843, -0.11545200645923615, -0.15480412542819977, 0.024925824254751205, -0.19689905643463135, -0.1554979383945465, 0.06723388284444809, -0.03712943568825722, -0.09792923927307129, -0.19314175844192505, 0.06179628148674965, -0.01077786460518837], [-0.03695797547698021, -0.11506503075361252, 0.018494756892323494, 0.12374484539031982, 0.012866373173892498, 0.09200769662857056, -0.05375561863183975, -0.16322733461856842, 0.013273212127387524, -0.03336411342024803, -0.04135732352733612, 0.2663463354110718, 0.19271793961524963, -0.053883619606494904, -0.06754910200834274, 0.05435413867235184, -0.0651339590549469, 0.17514066398143768, -0.0622008740901947, 0.14028263092041016, 0.07581224292516708, 0.15953780710697174, 0.12255792319774628, -0.11043861508369446], [0.10660287737846375, -0.3200608193874359, 0.07118735462427139, -0.08754827082157135, 0.04365282878279686, -0.08169214427471161, -0.0995834693312645, -0.028788166120648384, 0.13050328195095062, -0.03481496125459671, -0.024407215416431427, -0.05140496417880058, 0.15768402814865112, -0.017670534551143646, -0.1448860764503479, -0.19821074604988098, 0.05816204473376274, 0.033442288637161255, 0.11824511736631393, -0.07167036086320877, 0.09348391741514206, -0.08657293021678925, -0.02985425665974617, 0.04687563702464104], [0.01700481027364731, -0.05334530770778656, 0.09487694501876831, -0.06516356766223907, 0.07787898927927017, 0.14375504851341248, -0.1464550793170929, -0.08147870749235153, -0.02225060947239399, -0.04788070172071457, 0.05501227080821991, 0.1474166363477707, 0.10710246115922928, 0.18105415999889374, -0.2103147655725479, 0.05832831189036369, 0.06284625828266144, 0.08590356260538101, -0.11184775084257126, 0.18727001547813416, -0.05518370866775513, 0.020856158807873726, 0.15609534084796906, 0.10776174813508987]], [[-0.21565644443035126, -0.27553778886795044, 0.19912834465503693, 0.4240473806858063, 0.20162628591060638, -0.1102389544248581, 0.09802977740764618, 0.2621130645275116, 0.15022437274456024, -0.4715435206890106, 0.6756308078765869, -0.1306172013282776], [0.44958052039146423, 0.7984176278114319, 0.03507066145539284, 0.3329392075538635, -0.3709430396556854, 0.6683040261268616, 0.18137097358703613, -0.4681798815727234, 0.011818496510386467, -0.27827998995780945, -0.448740690946579, -0.36073046922683716], [-0.12831492722034454, -0.2644440233707428, -0.5076316595077515, -0.5333542227745056, 0.1917012631893158, -0.2583492398262024, 0.41688647866249084, 0.42713621258735657, 0.07506585121154785, 0.6464226245880127, -0.36078450083732605, 0.7482645511627197]]], "One-Hot_Encoded_Output": {"non-infectious illness": [1, 0, 0], "bacterial": [0, 1, 0], "viral": [0, 0, 1]}, "Biases": [[-0.05468665435910225, 0.058270540088415146, 0.01067841611802578, -0.18396316468715668, 0.16257646679878235, 0.16177894175052643, 0.014537643641233444, -0.1640508770942688, -0.12265997380018234, 0.0039753601886332035, -0.16493085026741028, -0.16106866300106049, -0.043060820549726486, -0.08312411606311798, 0.07086419314146042, -0.07587696611881256, -0.038267675787210464, -0.11018197238445282, -0.26380881667137146, 0.2517613470554352, 0.05507410690188408, 0.2581403851509094, -0.046523191034793854, -0.07254777103662491], [0.13710017502307892, -0.015126869082450867, 0.20011627674102783, 0.08963815122842789, -0.10867918282747269, -0.1857670545578003, 0.11862442642450333, 0.19143430888652802, -0.11892781406641006, 0.08383845537900925, 0.00868983194231987, -0.043645311146974564], [-0.4750545918941498, -0.1302432268857956, 0.05283632501959801]]}